El detector usado fue DetectorHOG
pasoEscala	1.050000
umbralAgrupamiento	2
hit_threshold	0.000000
setSVMDetector	getDefaultPeopleDetector
escala_inicial	2.000000
convertir_a_gris	true
ecualizar_histograma	true
blurear	false
tamanio_blur	3
filtro_enfoque	false
filtro_repujado	false
filtro_enfoque_y_repujado	false
filtro_repujado_y_enfoque	false
usar_profundidad_altura	false

pasoEscala;umbralAgrupamiento;hit_threshold;setSVMDetector;escala_inicial;convertir_a_gris;ecualizar_histograma;blurear;tamanio_blur;filtro_enfoque;filtro_repujado;filtro_enfoque_y_repujado;filtro_repujado_y_enfoque;usar_profundidad_altura;
1.050000;2;0.000000;getDefaultPeopleDetector;2.000000;true;true;false;3;false;false;false;false;false;
