Archivo estimados;Archivo reales;Imagenes analizadas;Total de detecciones;Verdaderos positivos;Falsos positivos;Falsos negativos;Miss rate: fneg/(vpos+fneg);Miss rate * tiempo promedio;FFPW;100*Miss rate * FPPW;100*Miss rate * FPPW * tiempo promedio;Tiempo promedio de detección;precision: vpos/(vpos+fpos);recall: vpos/(vpos+fneg);precision*recall;F1: 2*(precision*recall)/(precision+recall);100*F1/tiempo promedio;F0.5: (1+0.25)*precision*recall/((0.25*precision)+recall);pasoEscala;umbralAgrupamiento;hit_threshold;setSVMDetector;escala_inicial;convertir_a_gris;ecualizar_histograma;blurear;tamanio_blur;filtro_enfoque;filtro_repujado;filtro_enfoque_y_repujado;filtro_repujado_y_enfoque;usar_profundidad_altura;
DH_ff_01;set1_reales;24;32;6;26;9;0.600000;39.299061;1.083333;65.000008;4257.398438;65.498432;0.187500;0.400000;0.075000;0.255319;0.389810;0.209790;1.050000;2;0.000000;getDefaultPeopleDetector;1.300000;true;true;false;3;false;false;false;false;false;
DH_ff_02;set1_reales;24;26;8;18;7;0.466667;27.469067;0.750000;35.000000;2060.179932;58.862284;0.307692;0.533333;0.164103;0.390244;0.662978;0.336134;1.050000;2;0.000000;getDefaultPeopleDetector;1.300000;true;true;false;3;true;false;false;false;false;
DH_ff_03;set1_reales;24;13;7;6;8;0.533333;32.992748;0.250000;13.333334;824.818726;61.861399;0.538462;0.466667;0.251282;0.500000;0.808258;0.522388;1.050000;2;0.000000;getDefaultPeopleDetector;1.300000;true;true;false;3;false;true;false;false;false;
DH_ff_04;set1_reales;24;32;6;26;9;0.600000;34.911510;1.083333;65.000008;3782.080566;58.185850;0.187500;0.400000;0.075000;0.255319;0.438799;0.209790;1.050000;2;0.000000;getDefaultPeopleDetector;1.300000;true;true;false;3;false;false;true;false;false;
DH_ff_05;set1_reales;24;7;3;4;12;0.800000;48.561371;0.166667;13.333334;809.356201;60.701714;0.428571;0.200000;0.085714;0.272727;0.449291;0.348837;1.050000;2;0.000000;getDefaultPeopleDetector;1.300000;true;true;false;3;false;false;false;true;false;
