Archivo estimados;Archivo reales;Imagenes analizadas;Total de detecciones;Verdaderos positivos;Falsos positivos;Falsos negativos;Miss rate: fneg/(vpos+fneg);Miss rate * tiempo promedio;FFPW;100*Miss rate * FPPW;100*Miss rate * FPPW * tiempo promedio;Tiempo promedio de detección;precision: vpos/(vpos+fpos);recall: vpos/(vpos+fneg);precision*recall;F1: 2*(precision*recall)/(precision+recall);100*F1/tiempo promedio;F0.5: (1+0.25)*precision*recall/((0.25*precision)+recall);pasoEscala;umbralAgrupamiento;hit_threshold;setSVMDetector;escala_inicial;convertir_a_gris;ecualizar_histograma;blurear;tamanio_blur;filtro_enfoque;filtro_repujado;filtro_enfoque_y_repujado;filtro_repujado_y_enfoque;usar_profundidad_altura;
DH_bl_01;set1_reales;24;32;6;26;9;0.600000;39.036705;1.083333;65.000008;4228.976562;65.061172;0.187500;0.400000;0.075000;0.255319;0.392429;0.209790;1.050000;2;0.000000;getDefaultPeopleDetector;1.300000;true;true;false;3;false;false;false;false;false;
DH_bl_02;set1_reales;24;29;5;24;10;0.666667;38.938454;1.000000;66.666672;3893.845703;58.407680;0.172414;0.333333;0.057471;0.227273;0.389114;0.190840;1.050000;2;0.000000;getDefaultPeopleDetector;1.300000;true;true;true;3;false;false;false;false;false;
DH_bl_03;set1_reales;24;28;6;22;9;0.600000;37.002617;0.916667;55.000004;3391.906494;61.671025;0.214286;0.400000;0.085714;0.279070;0.452514;0.236220;1.050000;2;0.000000;getDefaultPeopleDetector;1.300000;true;true;true;5;false;false;false;false;false;
DH_bl_04;set1_reales;24;26;5;21;10;0.666667;39.944077;0.875000;58.333336;3495.106689;59.916112;0.192308;0.333333;0.064103;0.243902;0.407073;0.210084;1.050000;2;0.000000;getDefaultPeopleDetector;1.300000;true;true;true;7;false;false;false;false;false;
DH_bl_05;set1_reales;24;24;5;19;10;0.666667;40.345631;0.791667;52.777782;3194.029053;60.518442;0.208333;0.333333;0.069444;0.256410;0.423689;0.225225;1.050000;2;0.000000;getDefaultPeopleDetector;1.300000;true;true;true;9;false;false;false;false;false;
