Archivo estimados;Archivo reales;Imagenes analizadas;Total de detecciones;Verdaderos positivos;Falsos positivos;Falsos negativos;Miss rate: fneg/(vpos+fneg);Miss rate * tiempo promedio;FFPW;100*Miss rate * FPPW;100*Miss rate * FPPW * tiempo promedio;Tiempo promedio de detección;precision: vpos/(vpos+fpos);recall: vpos/(vpos+fneg);precision*recall;F1: 2*(precision*recall)/(precision+recall);100*F1/tiempo promedio;F0.5: (1+0.25)*precision*recall/((0.25*precision)+recall);pasoEscala;umbralAgrupamiento;hit_threshold;setSVMDetector;escala_inicial;convertir_a_gris;ecualizar_histograma;blurear;tamanio_blur;filtro_enfoque;filtro_repujado;filtro_enfoque_y_repujado;filtro_repujado_y_enfoque;
DH_pe_01;set235nuevo_reales;900;775;745;30;383;0.339539;19.688883;0.033333;1.131797;65.629616;57.987100;0.961290;0.660461;0.634895;0.782974;1.350256;0.881031;1.050000;2;0.000000;getDefaultPeopleDetector;1.300000;true;true;false;3;false;false;false;false;
DH_pe_02;set235nuevo_reales;900;597;582;15;544;0.483126;16.899820;0.016667;0.805210;28.166370;34.980145;0.974874;0.516874;0.503887;0.675566;1.931284;0.828116;1.100000;2;0.000000;getDefaultPeopleDetector;1.300000;true;true;false;3;false;false;false;false;
DH_pe_03;set235nuevo_reales;900;466;455;11;670;0.595556;14.843733;0.012222;0.727901;18.142340;24.924179;0.976395;0.404444;0.394897;0.571967;2.294829;0.761124;1.150000;2;0.000000;getDefaultPeopleDetector;1.300000;true;true;false;3;false;false;false;false;
DH_pe_04;set235nuevo_reales;900;278;269;9;856;0.760889;15.742291;0.010000;0.760889;15.742291;20.689344;0.967626;0.239111;0.231370;0.383464;1.853437;0.601252;1.200000;2;0.000000;getDefaultPeopleDetector;1.300000;true;true;false;3;false;false;false;false;
DH_pe_05;set235nuevo_reales;900;42;41;1;1084;0.963556;16.836769;0.001111;0.107062;1.870752;17.473583;0.976190;0.036444;0.035577;0.070266;0.402125;0.158546;1.400000;2;0.000000;getDefaultPeopleDetector;1.300000;true;true;false;3;false;false;false;false;
DH_pe_06;set235nuevo_reales;900;21;20;1;1105;0.982222;15.810092;0.001111;0.109136;1.756677;16.096248;0.952381;0.017778;0.016931;0.034904;0.216846;0.082713;2.000000;2;0.000000;getDefaultPeopleDetector;1.300000;true;true;false;3;false;false;false;false;
DH_pe_07;set235nuevo_reales;900;18;17;1;1108;0.984889;15.298882;0.001111;0.109432;1.699876;15.533611;0.944444;0.015111;0.014272;0.029746;0.191496;0.071011;4.000000;2;0.000000;getDefaultPeopleDetector;1.300000;true;true;false;3;false;false;false;false;
DH_ua_01;set235nuevo_reales;900;2750;1864;886;267;0.125293;7.265250;0.984444;12.334428;715.223511;57.985947;0.677818;0.874707;0.592892;0.763778;1.317178;0.709771;1.050000;0;0.000000;getDefaultPeopleDetector;1.300000;true;true;false;3;false;false;false;false;
DH_ua_02;set235nuevo_reales;900;1085;804;281;325;0.287865;16.462936;0.312222;8.987797;514.009460;57.189708;0.741014;0.712135;0.527702;0.726287;1.269961;0.735052;1.050000;1;0.000000;getDefaultPeopleDetector;1.300000;true;true;false;3;false;false;false;false;
DH_ua_03;set235nuevo_reales;900;775;745;30;383;0.339539;19.163595;0.033333;1.131797;63.878658;56.440040;0.961290;0.660461;0.634895;0.782974;1.387267;0.881031;1.050000;2;0.000000;getDefaultPeopleDetector;1.300000;true;true;false;3;false;false;false;false;
DH_ua_04;set235nuevo_reales;900;692;669;23;458;0.406389;22.939522;0.025556;1.038549;58.623219;56.447250;0.966763;0.593611;0.573882;0.735569;1.303109;0.858793;1.050000;3;0.000000;getDefaultPeopleDetector;1.300000;true;true;false;3;false;false;false;false;
DH_ua_05;set235nuevo_reales;900;623;612;11;515;0.456965;25.914120;0.012222;0.558513;31.672812;56.709153;0.982343;0.543035;0.533446;0.699429;1.233361;0.845537;1.050000;4;0.000000;getDefaultPeopleDetector;1.300000;true;true;false;3;false;false;false;false;
DH_ua_06;set235nuevo_reales;900;563;555;8;572;0.507542;28.569094;0.008889;0.451149;25.394751;56.289106;0.985790;0.492458;0.485460;0.656805;1.166842;0.821249;1.050000;5;0.000000;getDefaultPeopleDetector;1.300000;true;true;false;3;false;false;false;false;
DH_ua_07;set235nuevo_reales;900;506;500;6;627;0.556344;31.227003;0.006667;0.370896;20.818003;56.128921;0.988142;0.443656;0.438395;0.612370;1.091006;0.793399;1.050000;6;0.000000;getDefaultPeopleDetector;1.300000;true;true;false;3;false;false;false;false;
DH_ua_08;set235nuevo_reales;900;463;457;6;669;0.594139;34.049671;0.006667;0.396092;22.699781;57.309311;0.987041;0.405861;0.400602;0.575205;1.003684;0.767294;1.050000;7;0.000000;getDefaultPeopleDetector;1.300000;true;true;false;3;false;false;false;false;
DH_ua_09;set235nuevo_reales;900;412;406;6;719;0.639111;35.990253;0.006667;0.426074;23.993504;56.312987;0.985437;0.360889;0.355633;0.528302;0.938153;0.732059;1.050000;8;0.000000;getDefaultPeopleDetector;1.300000;true;true;false;3;false;false;false;false;
DH_ht_01;set235nuevo_reales;900;775;745;30;383;0.339539;19.212252;0.033333;1.131797;64.040840;56.583339;0.961290;0.660461;0.634895;0.782974;1.383754;0.881031;1.050000;2;0.000000;getDefaultPeopleDetector;1.300000;true;true;false;3;false;false;false;false;
DH_ht_02;set235nuevo_reales;900;730;708;22;419;0.371783;22.684772;0.024444;0.908804;55.451664;61.016083;0.969863;0.628217;0.609284;0.762520;1.249704;0.874722;1.050000;2;0.100000;getDefaultPeopleDetector;1.300000;true;true;false;3;false;false;false;false;
DH_ht_03;set235nuevo_reales;900;676;659;17;468;0.415262;24.162939;0.018889;0.784383;45.641109;58.187248;0.974852;0.584738;0.570033;0.731004;1.256296;0.860089;1.050000;2;0.200000;getDefaultPeopleDetector;1.300000;true;true;false;3;false;false;false;false;
DH_ht_04;set235nuevo_reales;900;632;618;14;507;0.450667;26.503269;0.015556;0.701037;41.227310;58.809031;0.977848;0.549333;0.537165;0.703472;1.196197;0.845880;1.050000;2;0.300000;getDefaultPeopleDetector;1.300000;true;true;false;3;false;false;false;false;
DH_ht_05;set235nuevo_reales;900;588;575;13;550;0.488889;29.218069;0.014444;0.706173;42.203876;59.764233;0.977891;0.511111;0.499811;0.671337;1.123309;0.826862;1.050000;2;0.400000;getDefaultPeopleDetector;1.300000;true;true;false;3;false;false;false;false;
DH_ht_06;set235nuevo_reales;900;551;542;9;583;0.518222;31.729340;0.010000;0.518222;31.729340;61.227285;0.983666;0.481778;0.473908;0.646778;1.056356;0.814058;1.050000;2;0.500000;getDefaultPeopleDetector;1.300000;true;true;false;3;false;false;false;false;
DH_ht_07;set235nuevo_reales;900;354;352;2;773;0.687111;40.717281;0.002222;0.152691;9.048285;59.258654;0.994350;0.312889;0.311121;0.475997;0.803254;0.692641;1.050000;2;1.000000;getDefaultPeopleDetector;1.300000;true;true;false;3;false;false;false;false;
DH_ht_08;set235nuevo_reales;900;80;79;1;1046;0.929778;54.000977;0.001111;0.103309;6.000109;58.079444;0.987500;0.070222;0.069344;0.131120;0.225760;0.273356;1.050000;2;2.000000;getDefaultPeopleDetector;1.300000;true;true;false;3;false;false;false;false;
DH_ht_09;set235nuevo_reales;900;1;1;0;1124;0.999111;0.000000;0.000000;0.000000;0.000000;0.000000;1.000000;0.000889;0.000889;0.001776;inf;0.004429;1.050000;2;4.000000;getDefaultPeopleDetector;1.300000;true;true;false;3;false;false;false;false;
DH_sd_01;set235nuevo_reales;900;775;745;30;383;0.339539;19.688738;0.033333;1.131797;65.629135;57.986672;0.961290;0.660461;0.634895;0.782974;1.350266;0.881031;1.050000;2;0.000000;getDefaultPeopleDetector;1.300000;true;true;false;3;false;false;false;false;
DH_sd_02;set235nuevo_reales;900;4574;907;3667;224;0.198055;10.390868;4.074444;80.696335;4233.701660;52.464607;0.198295;0.801945;0.159021;0.317967;0.606059;0.233438;1.050000;2;0.000000;getDaimlerPeopleDetector;1.300000;true;true;false;3;false;false;false;false;
DH_bl_01;set235nuevo_reales;900;775;745;30;383;0.339539;22.495937;0.033333;1.131797;74.986465;66.254349;0.961290;0.660461;0.634895;0.782974;1.181770;0.881031;1.050000;2;0.000000;getDefaultPeopleDetector;1.300000;true;true;false;3;false;false;false;false;
DH_bl_02;set235nuevo_reales;900;775;740;35;387;0.343390;22.404753;0.038889;1.335404;87.129601;65.245881;0.954839;0.656610;0.626957;0.778128;1.192609;0.875325;1.050000;2;0.000000;getDefaultPeopleDetector;1.300000;true;true;true;3;false;false;false;false;
DH_bl_03;set235nuevo_reales;900;768;727;41;401;0.355496;22.557808;0.045556;1.619484;102.763351;63.454382;0.946615;0.644504;0.610096;0.766878;1.208550;0.865476;1.050000;2;0.000000;getDefaultPeopleDetector;1.300000;true;true;true;5;false;false;false;false;
DH_bl_04;set235nuevo_reales;900;724;685;39;443;0.392731;25.154085;0.043333;1.701832;109.001038;64.049226;0.946133;0.607270;0.574557;0.739741;1.154957;0.851143;1.050000;2;0.000000;getDefaultPeopleDetector;1.300000;true;true;true;7;false;false;false;false;
DH_bl_05;set235nuevo_reales;900;826;642;184;485;0.430346;27.864080;0.204444;8.798185;569.665588;64.748079;0.777240;0.569654;0.442758;0.657450;1.015397;0.724441;1.050000;2;0.000000;getDefaultPeopleDetector;1.300000;true;true;true;9;false;false;false;false;
DH_xx_01;set235nuevo_reales;900;719;695;24;430;0.382222;28.545130;0.026667;1.019259;76.120346;74.682022;0.966620;0.617778;0.597157;0.753796;1.009341;0.868533;1.050000;2;0.000000;getDefaultPeopleDetector;1.300000;false;false;false;3;false;false;false;false;
DH_xx_02;set235nuevo_reales;900;1107;790;317;339;0.300266;18.057701;0.352222;10.576027;636.032410;60.139070;0.713640;0.699734;0.499359;0.706619;1.174975;0.710815;1.050000;2;0.000000;getDefaultPeopleDetector;1.300000;true;false;false;3;false;false;false;false;
DH_xx_03;set235nuevo_reales;900;775;745;30;383;0.339539;20.243177;0.033333;1.131797;67.477264;59.619590;0.961290;0.660461;0.634895;0.782974;1.313284;0.881031;1.050000;2;0.000000;getDefaultPeopleDetector;1.300000;true;true;false;3;false;false;false;false;
DH_ei_01;set235nuevo_reales;900;960;725;235;402;0.356699;41.770943;0.261111;9.313812;1090.685669;117.104107;0.755208;0.643301;0.485826;0.694777;0.593299;0.729817;1.050000;2;0.000000;getDefaultPeopleDetector;1.000000;true;true;false;3;false;false;false;false;
DH_ei_02;set235nuevo_reales;900;816;721;95;404;0.359111;27.900660;0.105556;3.790617;294.506958;77.693669;0.883578;0.640889;0.566276;0.742916;0.956212;0.821372;1.050000;2;0.000000;getDefaultPeopleDetector;1.200000;true;true;false;3;false;false;false;false;
DH_ei_03;set235nuevo_reales;900;775;745;30;383;0.339539;20.304956;0.033333;1.131797;67.683197;59.801543;0.961290;0.660461;0.634895;0.782974;1.309288;0.881031;1.050000;2;0.000000;getDefaultPeopleDetector;1.300000;true;true;false;3;false;false;false;false;
DH_ei_04;set235nuevo_reales;900;728;712;16;414;0.367673;15.381865;0.017778;0.653641;27.345537;41.835698;0.978022;0.632327;0.618430;0.768069;1.835918;0.881625;1.050000;2;0.000000;getDefaultPeopleDetector;1.500000;true;true;false;3;false;false;false;false;
DH_ei_05;set235nuevo_reales;900;515;508;7;618;0.548845;10.234798;0.007778;0.426880;7.960399;18.647869;0.986408;0.451155;0.445022;0.619135;3.320136;0.797238;1.050000;2;0.000000;getDefaultPeopleDetector;2.000000;true;true;false;3;false;false;false;false;
DH_ei_06;set235nuevo_reales;900;59;57;2;1068;0.949333;4.087072;0.002222;0.210963;0.908238;4.305203;0.966102;0.050667;0.048949;0.096284;2.236452;0.209405;1.050000;2;0.000000;getDefaultPeopleDetector;3.000000;true;true;false;3;false;false;false;false;
DH_ff_01;set235nuevo_reales;900;775;745;30;383;0.339539;20.264929;0.033333;1.131797;67.549767;59.683653;0.961290;0.660461;0.634895;0.782974;1.311874;0.881031;1.050000;2;0.000000;getDefaultPeopleDetector;1.300000;true;true;false;3;false;false;false;false;
DH_ff_02;set235nuevo_reales;900;728;693;35;433;0.384547;23.237803;0.038889;1.495461;90.369232;60.429022;0.951923;0.615453;0.585864;0.747573;1.237109;0.858098;1.050000;2;0.000000;getDefaultPeopleDetector;1.300000;true;true;false;3;true;false;false;false;
DH_ff_03;set235nuevo_reales;900;459;435;24;690;0.613333;35.979855;0.026667;1.635556;95.946281;58.662806;0.947712;0.386667;0.366449;0.549242;0.936270;0.734549;1.050000;2;0.000000;getDefaultPeopleDetector;1.300000;true;true;false;3;false;true;false;false;
DH_ff_04;set235nuevo_reales;900;248;219;29;906;0.805333;47.099350;0.032222;2.594963;151.764587;58.484296;0.883065;0.194667;0.171903;0.319009;0.545462;0.517241;1.050000;2;0.000000;getDefaultPeopleDetector;1.300000;true;true;false;3;false;false;true;false;
DH_ff_05;set235nuevo_reales;900;276;241;35;884;0.785778;46.223061;0.038889;3.055803;179.756363;58.824593;0.873188;0.214222;0.187056;0.344040;0.584857;0.540601;1.050000;2;0.000000;getDefaultPeopleDetector;1.300000;true;true;false;3;false;false;false;true;
