Archivo estimados;Archivo reales;Imagenes analizadas;Total de detecciones;Verdaderos positivos;Falsos positivos;Falsos negativos;Miss rate: fneg/(vpos+fneg);Miss rate * tiempo promedio;FFPW;100*Miss rate * FPPW;100*Miss rate * FPPW * tiempo promedio;Tiempo promedio de detección;precision: vpos/(vpos+fpos);recall: vpos/(vpos+fneg);precision*recall;F1: 2*(precision*recall)/(precision+recall);100*F1/tiempo promedio;F0.5: (1+0.25)*precision*recall/((0.25*precision)+recall);pasoEscala;umbralAgrupamiento;hit_threshold;setSVMDetector;escala_inicial;convertir_a_gris;ecualizar_histograma;blurear;tamanio_blur;filtro_enfoque;filtro_repujado;filtro_enfoque_y_repujado;filtro_repujado_y_enfoque;
DH_bl_01;set235nuevo_reales;900;775;745;30;383;0.339539;22.495937;0.033333;1.131797;74.986465;66.254349;0.961290;0.660461;0.634895;0.782974;1.181770;0.881031;1.050000;2;0.000000;getDefaultPeopleDetector;1.300000;true;true;false;3;false;false;false;false;
DH_bl_02;set235nuevo_reales;900;775;740;35;387;0.343390;22.404753;0.038889;1.335404;87.129601;65.245881;0.954839;0.656610;0.626957;0.778128;1.192609;0.875325;1.050000;2;0.000000;getDefaultPeopleDetector;1.300000;true;true;true;3;false;false;false;false;
DH_bl_03;set235nuevo_reales;900;768;727;41;401;0.355496;22.557808;0.045556;1.619484;102.763351;63.454382;0.946615;0.644504;0.610096;0.766878;1.208550;0.865476;1.050000;2;0.000000;getDefaultPeopleDetector;1.300000;true;true;true;5;false;false;false;false;
DH_bl_04;set235nuevo_reales;900;724;685;39;443;0.392731;25.154085;0.043333;1.701832;109.001038;64.049226;0.946133;0.607270;0.574557;0.739741;1.154957;0.851143;1.050000;2;0.000000;getDefaultPeopleDetector;1.300000;true;true;true;7;false;false;false;false;
DH_bl_05;set235nuevo_reales;900;826;642;184;485;0.430346;27.864080;0.204444;8.798185;569.665588;64.748079;0.777240;0.569654;0.442758;0.657450;1.015397;0.724441;1.050000;2;0.000000;getDefaultPeopleDetector;1.300000;true;true;true;9;false;false;false;false;
