Archivo estimados;Archivo reales;Imagenes analizadas;Total de detecciones;Verdaderos positivos;Falsos positivos;Falsos negativos;Miss rate: fneg/(vpos+fneg);Miss rate * tiempo promedio;FFPW;100*Miss rate * FPPW;100*Miss rate * FPPW * tiempo promedio;Tiempo promedio de detección;precision: vpos/(vpos+fpos);recall: vpos/(vpos+fneg);precision*recall;F1: 2*(precision*recall)/(precision+recall);100*F1/tiempo promedio;F0.5: (1+0.25)*precision*recall/((0.25*precision)+recall);pasoEscala;umbralAgrupamiento;hit_threshold;setSVMDetector;escala_inicial;convertir_a_gris;ecualizar_histograma;blurear;tamanio_blur;filtro_enfoque;filtro_repujado;filtro_enfoque_y_repujado;filtro_repujado_y_enfoque;
DH_ff_01;set235nuevo_reales;900;775;745;30;383;0.339539;20.264929;0.033333;1.131797;67.549767;59.683653;0.961290;0.660461;0.634895;0.782974;1.311874;0.881031;1.050000;2;0.000000;getDefaultPeopleDetector;1.300000;true;true;false;3;false;false;false;false;
DH_ff_02;set235nuevo_reales;900;728;693;35;433;0.384547;23.237803;0.038889;1.495461;90.369232;60.429022;0.951923;0.615453;0.585864;0.747573;1.237109;0.858098;1.050000;2;0.000000;getDefaultPeopleDetector;1.300000;true;true;false;3;true;false;false;false;
DH_ff_03;set235nuevo_reales;900;459;435;24;690;0.613333;35.979855;0.026667;1.635556;95.946281;58.662806;0.947712;0.386667;0.366449;0.549242;0.936270;0.734549;1.050000;2;0.000000;getDefaultPeopleDetector;1.300000;true;true;false;3;false;true;false;false;
DH_ff_04;set235nuevo_reales;900;248;219;29;906;0.805333;47.099350;0.032222;2.594963;151.764587;58.484296;0.883065;0.194667;0.171903;0.319009;0.545462;0.517241;1.050000;2;0.000000;getDefaultPeopleDetector;1.300000;true;true;false;3;false;false;true;false;
DH_ff_05;set235nuevo_reales;900;276;241;35;884;0.785778;46.223061;0.038889;3.055803;179.756363;58.824593;0.873188;0.214222;0.187056;0.344040;0.584857;0.540601;1.050000;2;0.000000;getDefaultPeopleDetector;1.300000;true;true;false;3;false;false;false;true;
