Archivo estimados;Archivo reales;Imagenes analizadas;Total de detecciones;Verdaderos positivos;Falsos positivos;Falsos negativos;Miss rate: fneg/(vpos+fneg);Miss rate * tiempo promedio;FFPW;100*Miss rate * FPPW;100*Miss rate * FPPW * tiempo promedio;Tiempo promedio de detección;precision: vpos/(vpos+fpos);recall: vpos/(vpos+fneg);precision*recall;F1: 2*(precision*recall)/(precision+recall);100*F1/tiempo promedio;F0.5: (1+0.25)*precision*recall/((0.25*precision)+recall);pasoEscala;umbralAgrupamiento;hit_threshold;setSVMDetector;escala_inicial;convertir_a_gris;ecualizar_histograma;blurear;tamanio_blur;filtro_enfoque;filtro_repujado;filtro_enfoque_y_repujado;filtro_repujado_y_enfoque;
DH_xx_01;set235nuevo_reales;900;719;695;24;430;0.382222;28.545130;0.026667;1.019259;76.120346;74.682022;0.966620;0.617778;0.597157;0.753796;1.009341;0.868533;1.050000;2;0.000000;getDefaultPeopleDetector;1.300000;false;false;false;3;false;false;false;false;
DH_xx_02;set235nuevo_reales;900;1107;790;317;339;0.300266;18.057701;0.352222;10.576027;636.032410;60.139070;0.713640;0.699734;0.499359;0.706619;1.174975;0.710815;1.050000;2;0.000000;getDefaultPeopleDetector;1.300000;true;false;false;3;false;false;false;false;
DH_xx_03;set235nuevo_reales;900;775;745;30;383;0.339539;20.243177;0.033333;1.131797;67.477264;59.619590;0.961290;0.660461;0.634895;0.782974;1.313284;0.881031;1.050000;2;0.000000;getDefaultPeopleDetector;1.300000;true;true;false;3;false;false;false;false;
