Archivo estimados;Archivo reales;Imagenes analizadas;Total de detecciones;Verdaderos positivos;Falsos positivos;Falsos negativos;Miss rate: fneg/(vpos+fneg);Miss rate * tiempo promedio;FFPW;100*Miss rate * FPPW;100*Miss rate * FPPW * tiempo promedio;Tiempo promedio de detección;precision: vpos/(vpos+fpos);recall: vpos/(vpos+fneg);precision*recall;F1: 2*(precision*recall)/(precision+recall);100*F1/tiempo promedio;F0.5: (1+0.25)*precision*recall/((0.25*precision)+recall);pasoEscala;umbralAgrupamiento;hit_threshold;setSVMDetector;escala_inicial;convertir_a_gris;ecualizar_histograma;blurear;tamanio_blur;filtro_enfoque;filtro_repujado;filtro_enfoque_y_repujado;filtro_repujado_y_enfoque;
DH_bl_01;set235_reales;900;754;664;90;252;0.275109;16.758314;0.100000;2.751092;167.583130;60.915139;0.880637;0.724891;0.638365;0.795210;1.305438;0.844354;1.050000;2;0.000000;getDefaultPeopleDetector;1.300000;true;true;false;3;false;false;false;false;
DH_bl_02;set235_reales;900;760;666;94;252;0.274510;16.739580;0.104444;2.867102;174.835602;60.979893;0.876316;0.725490;0.635759;0.793802;1.301744;0.841334;1.050000;2;0.000000;getDefaultPeopleDetector;1.300000;true;true;true;3;false;false;false;false;
DH_bl_03;set235_reales;900;749;650;99;267;0.291167;17.970135;0.110000;3.202835;197.671478;61.717655;0.867824;0.708833;0.615142;0.780312;1.264326;0.830565;1.050000;2;0.000000;getDefaultPeopleDetector;1.300000;true;true;true;5;false;false;false;false;
DH_bl_04;set235_reales;900;710;623;87;292;0.319126;19.602919;0.096667;3.084882;189.494873;61.426954;0.877465;0.680874;0.597443;0.766769;1.248262;0.829561;1.050000;2;0.000000;getDefaultPeopleDetector;1.300000;true;true;true;7;false;false;false;false;
DH_bl_05;set235_reales;900;815;584;231;330;0.361050;23.127262;0.256667;9.266958;593.599670;64.055505;0.716564;0.638950;0.457849;0.675535;1.054609;0.699569;1.050000;2;0.000000;getDefaultPeopleDetector;1.300000;true;true;true;9;false;false;false;false;
