Archivo estimados;Archivo reales;Imagenes analizadas;Total de detecciones;Verdaderos positivos;Falsos positivos;Falsos negativos;Miss rate: fneg/(vpos+fneg);Miss rate * tiempo promedio;FFPW;100*Miss rate * FPPW;100*Miss rate * FPPW * tiempo promedio;Tiempo promedio de detección;precision: vpos/(vpos+fpos);recall: vpos/(vpos+fneg);precision*recall;F1: 2*(precision*recall)/(precision+recall);100*F1/tiempo promedio;F0.5: (1+0.25)*precision*recall/((0.25*precision)+recall);pasoEscala;umbralAgrupamiento;hit_threshold;setSVMDetector;escala_inicial;convertir_a_gris;ecualizar_histograma;blurear;tamanio_blur;filtro_enfoque;filtro_repujado;filtro_enfoque_y_repujado;filtro_repujado_y_enfoque;
DH_ff_01;set235_reales;900;754;664;90;252;0.275109;17.781561;0.100000;2.751092;177.815598;64.634560;0.880637;0.724891;0.638365;0.795210;1.230317;0.844354;1.050000;2;0.000000;getDefaultPeopleDetector;1.300000;true;true;false;3;false;false;false;false;
DH_ff_02;set235_reales;900;753;664;89;252;0.275109;17.887703;0.098889;2.720524;176.889511;65.020380;0.881806;0.724891;0.639213;0.795686;1.223749;0.845214;1.050000;2;0.000000;getDefaultPeopleDetector;1.300000;true;true;false;3;true;false;false;false;
DH_ff_03;set235_reales;900;756;666;90;249;0.272131;16.633471;0.100000;2.721311;166.334686;61.122993;0.880952;0.727869;0.641218;0.797127;1.304137;0.845392;1.050000;2;0.000000;getDefaultPeopleDetector;1.300000;true;true;false;3;false;true;false;false;
DH_ff_04;set235_reales;900;755;667;88;249;0.271834;16.115705;0.097778;2.657933;157.575790;59.285085;0.883444;0.728166;0.643294;0.798324;1.346586;0.847307;1.050000;2;0.000000;getDefaultPeopleDetector;1.300000;true;true;false;3;false;false;true;false;
DH_ff_05;set235_reales;900;754;664;90;251;0.274317;16.849228;0.100000;2.743170;168.492294;61.422485;0.880637;0.725683;0.639063;0.795686;1.295431;0.844569;1.050000;2;0.000000;getDefaultPeopleDetector;1.300000;true;true;false;3;false;false;false;true;
