Archivo estimados;Archivo reales;Imagenes analizadas;Total de detecciones;Verdaderos positivos;Falsos positivos;Falsos negativos;Miss rate: fneg/(vpos+fneg);Miss rate * tiempo promedio;FFPW;100*Miss rate * FPPW;100*Miss rate * FPPW * tiempo promedio;Tiempo promedio de detección;precision: vpos/(vpos+fpos);recall: vpos/(vpos+fneg);precision*recall;F1: 2*(precision*recall)/(precision+recall);100*F1/tiempo promedio;F0.5: (1+0.25)*precision*recall/((0.25*precision)+recall);pasoEscala;umbralAgrupamiento;hit_threshold;setSVMDetector;escala_inicial;convertir_a_gris;ecualizar_histograma;blurear;tamanio_blur;filtro_enfoque;filtro_repujado;filtro_enfoque_y_repujado;filtro_repujado_y_enfoque;
DH_ht_01;set235_reales;900;755;665;90;251;0.274017;15.811061;0.100000;2.740175;158.110611;57.700927;0.880795;0.725983;0.639442;0.795931;1.379407;0.844766;1.050000;2;0.000000;getDefaultPeopleDetector;1.300000;true;true;false;3;false;false;false;false;
DH_ht_02;set235_reales;900;755;665;90;251;0.274017;16.255013;0.100000;2.740175;162.550125;59.321084;0.880795;0.725983;0.639442;0.795931;1.341733;0.844766;1.050000;2;0.000000;getDefaultPeopleDetector;1.300000;true;true;false;3;false;false;false;false;
DH_ht_03;set235_reales;900;755;666;89;250;0.272926;15.790227;0.098889;2.698932;156.147797;57.855392;0.882119;0.727074;0.641366;0.797127;1.377793;0.846037;1.050000;2;0.000000;getDefaultPeopleDetector;1.300000;true;true;false;3;false;false;false;false;
DH_ht_04;set235_reales;900;755;665;90;250;0.273224;15.791778;0.100000;2.732240;157.917770;57.797904;0.880795;0.726776;0.640140;0.796407;1.377917;0.844981;1.050000;2;0.000000;getDefaultPeopleDetector;1.300000;true;true;false;3;false;false;false;false;
DH_ht_05;set235_reales;900;755;665;90;250;0.273224;15.532922;0.100000;2.732240;155.329208;56.850491;0.880795;0.726776;0.640140;0.796407;1.400880;0.844981;1.050000;2;0.000000;getDefaultPeopleDetector;1.300000;true;true;false;3;false;false;false;false;
DH_ht_06;set235_reales;900;754;664;90;251;0.274317;15.681020;0.100000;2.743170;156.810211;57.163879;0.880637;0.725683;0.639063;0.795686;1.391938;0.844569;1.050000;2;0.000000;getDefaultPeopleDetector;1.300000;true;true;false;3;false;false;false;false;
DH_ht_07;set235_reales;900;353;321;32;593;0.648796;38.083126;0.035556;2.306832;135.406662;58.698109;0.909348;0.351204;0.319366;0.506709;0.863246;0.690026;1.050000;2;1.000000;getDefaultPeopleDetector;1.300000;true;true;false;3;false;false;false;false;
DH_ht_08;set235_reales;900;80;80;0;834;0.912473;53.899197;0.000000;0.000000;0.000000;59.069383;1.000000;0.087527;0.087527;0.160966;0.272503;0.324149;1.050000;2;2.000000;getDefaultPeopleDetector;1.300000;true;true;false;3;false;false;false;false;
DH_ht_09;set235_reales;900;1;1;0;913;0.998906;0.000000;0.000000;0.000000;0.000000;0.000000;1.000000;0.001094;0.001094;0.002186;inf;0.005447;1.050000;2;4.000000;getDefaultPeopleDetector;1.300000;true;true;false;3;false;false;false;false;
