Archivo estimados;Archivo reales;Imagenes analizadas;Total de detecciones;Verdaderos positivos;Falsos positivos;Falsos negativos;Miss rate: fneg/(vpos+fneg);Miss rate * tiempo promedio;FFPW;100*Miss rate * FPPW;100*Miss rate * FPPW * tiempo promedio;Tiempo promedio de detección;precision: vpos/(vpos+fpos);recall: vpos/(vpos+fneg);precision*recall;F1: 2*(precision*recall)/(precision+recall);100*F1/tiempo promedio;F0.5: (1+0.25)*precision*recall/((0.25*precision)+recall);pasoEscala;umbralAgrupamiento;hit_threshold;setSVMDetector;escala_inicial;convertir_a_gris;ecualizar_histograma;blurear;tamanio_blur;filtro_enfoque;filtro_repujado;filtro_enfoque_y_repujado;filtro_repujado_y_enfoque;
DH_pe_01;set235_reales;900;755;666;89;250;0.272926;15.712320;0.098889;2.698932;155.377380;57.569941;0.882119;0.727074;0.641366;0.797127;1.384624;0.846037;1.050000;2;0.000000;getDefaultPeopleDetector;1.300000;true;true;false;3;false;false;false;false;
DH_pe_02;set235_reales;900;588;525;63;390;0.426230;15.129703;0.070000;2.983607;105.907913;35.496609;0.892857;0.573770;0.512295;0.698603;1.968083;0.803489;1.100000;2;0.000000;getDefaultPeopleDetector;1.300000;true;true;false;3;false;false;false;false;
DH_pe_03;set235_reales;900;464;409;55;505;0.552516;14.703210;0.061111;3.376489;89.852951;26.611355;0.881465;0.447484;0.394441;0.593614;2.230679;0.738267;1.150000;2;0.000000;getDefaultPeopleDetector;1.300000;true;true;false;3;false;false;false;false;
DH_pe_04;set235_reales;900;278;246;32;668;0.730853;16.094673;0.035556;2.598590;57.225506;22.021755;0.884892;0.269147;0.238166;0.412752;1.874291;0.607108;1.200000;2;0.000000;getDefaultPeopleDetector;1.300000;true;true;false;3;false;false;false;false;
DH_pe_05;set235_reales;900;42;32;10;882;0.964989;16.640255;0.011111;1.072210;18.489172;17.243983;0.761905;0.035011;0.026675;0.066946;0.388226;0.147874;1.400000;2;0.000000;getDefaultPeopleDetector;1.300000;true;true;false;3;false;false;false;false;
DH_pe_06;set235_reales;900;21;11;10;903;0.987965;16.341492;0.011111;1.097739;18.157215;16.540557;0.523810;0.012035;0.006304;0.023529;0.142253;0.055110;2.000000;2;0.000000;getDefaultPeopleDetector;1.300000;true;true;false;3;false;false;false;false;
DH_pe_07;set235_reales;900;18;8;10;906;0.991247;15.792534;0.011111;1.101386;17.547260;15.931983;0.444444;0.008753;0.003890;0.017167;0.107754;0.040568;4.000000;2;0.000000;getDefaultPeopleDetector;1.300000;true;true;false;3;false;false;false;false;
