Archivo estimados;Archivo reales;Imagenes analizadas;Total de detecciones;Verdaderos positivos;Falsos positivos;Falsos negativos;Miss rate: fneg/(vpos+fneg);Miss rate * tiempo promedio;FFPW;100*Miss rate * FPPW;100*Miss rate * FPPW * tiempo promedio;Tiempo promedio de detección;precision: vpos/(vpos+fpos);recall: vpos/(vpos+fneg);precision*recall;F1: 2*(precision*recall)/(precision+recall);100*F1/tiempo promedio;F0.5: (1+0.25)*precision*recall/((0.25*precision)+recall);pasoEscala;umbralAgrupamiento;hit_threshold;setSVMDetector;escala_inicial;convertir_a_gris;ecualizar_histograma;blurear;tamanio_blur;filtro_enfoque;filtro_repujado;filtro_enfoque_y_repujado;filtro_repujado_y_enfoque;
DH_xx_01;set235_reales;900;703;623;80;292;0.319126;22.100557;0.088889;2.836673;196.449402;69.253457;0.886202;0.680874;0.603392;0.770087;1.111983;0.835793;1.050000;2;0.000000;getDefaultPeopleDetector;1.300000;false;false;false;3;false;false;false;false;
DH_xx_02;set235_reales;900;1082;701;381;215;0.234716;13.764262;0.423333;9.936318;582.687134;58.642157;0.647874;0.765284;0.495808;0.701702;1.196582;0.668383;1.050000;2;0.000000;getDefaultPeopleDetector;1.300000;true;false;false;3;false;false;false;false;
DH_xx_03;set235_reales;900;755;665;90;251;0.274017;17.118015;0.100000;2.740175;171.180161;62.470531;0.880795;0.725983;0.639442;0.795931;1.274090;0.844766;1.050000;2;0.000000;getDefaultPeopleDetector;1.300000;true;true;false;3;false;false;false;false;
