Archivo estimados;Archivo reales;Imagenes analizadas;Total de detecciones;Verdaderos positivos;Falsos positivos;Falsos negativos;Miss rate: fneg/(vpos+fneg);Miss rate * tiempo promedio;FFPW;100*Miss rate * FPPW;100*Miss rate * FPPW * tiempo promedio;Tiempo promedio de detección;precision: vpos/(vpos+fpos);recall: vpos/(vpos+fneg);precision*recall;F1: 2*(precision*recall)/(precision+recall);100*F1/tiempo promedio;F0.5: (1+0.25)*precision*recall/((0.25*precision)+recall);pasoEscala;umbralAgrupamiento;hit_threshold;setSVMDetector;escala_inicial;convertir_a_gris;ecualizar_histograma;blurear;tamanio_blur;filtro_enfoque;filtro_repujado;filtro_enfoque_y_repujado;filtro_repujado_y_enfoque;
DH_ua_01;set235_reales;900;1358;687;671;241;0.259698;14.969226;0.745556;19.361950;1116.039062;57.640839;0.505891;0.740302;0.374512;0.601050;1.042750;0.540094;1.050000;0;0.000000;getDefaultPeopleDetector;1.300000;true;true;false;3;false;false;false;false;
DH_ua_02;set235_reales;900;1057;721;336;196;0.213740;12.386909;0.373333;7.979643;462.444611;57.953043;0.682119;0.786260;0.536323;0.730496;1.260497;0.700680;1.050000;1;0.000000;getDefaultPeopleDetector;1.300000;true;true;false;3;false;false;false;false;
DH_ua_03;set235_reales;900;754;665;89;250;0.273224;15.647333;0.098889;2.701882;154.734741;57.269238;0.881963;0.726776;0.640989;0.796884;1.391470;0.845841;1.050000;2;0.000000;getDefaultPeopleDetector;1.300000;true;true;false;3;false;false;false;false;
DH_ua_04;set235_reales;900;679;605;74;310;0.338798;19.527657;0.082222;2.785671;160.560730;57.638083;0.891016;0.661202;0.589142;0.759097;1.317005;0.833104;1.050000;3;0.000000;getDefaultPeopleDetector;1.300000;true;true;false;3;false;false;false;false;
DH_ua_05;set235_reales;900;613;557;56;358;0.391257;22.569197;0.062222;2.434487;140.430573;57.683842;0.908646;0.608743;0.553132;0.729058;1.263885;0.827146;1.050000;4;0.000000;getDefaultPeopleDetector;1.300000;true;true;false;3;false;false;false;false;
DH_ua_06;set235_reales;900;556;504;52;411;0.449180;26.003464;0.057778;2.595264;150.242233;57.890923;0.906475;0.550820;0.499304;0.685248;1.183688;0.802803;1.050000;5;0.000000;getDefaultPeopleDetector;1.300000;true;true;false;3;false;false;false;false;
DH_ua_07;set235_reales;900;503;455;48;460;0.502732;28.812962;0.053333;2.681238;153.669128;57.312741;0.904573;0.497268;0.449815;0.641749;1.119732;0.777246;1.050000;6;0.000000;getDefaultPeopleDetector;1.300000;true;true;false;3;false;false;false;false;
DH_ua_08;set235_reales;900;460;413;47;502;0.548634;32.539001;0.052222;2.865088;169.925903;59.309139;0.897826;0.451366;0.405248;0.600727;1.012875;0.749546;1.050000;7;0.000000;getDefaultPeopleDetector;1.300000;true;true;false;3;false;false;false;false;
DH_ua_09;set235_reales;900;411;367;44;548;0.598907;34.811531;0.048889;2.927990;170.189713;58.125094;0.892944;0.401093;0.358153;0.553545;0.952333;0.717077;1.050000;8;0.000000;getDefaultPeopleDetector;1.300000;true;true;false;3;false;false;false;false;
