Archivo estimados;Archivo reales;Imagenes analizadas;Total de detecciones;Verdaderos positivos;Falsos positivos;Falsos negativos;Miss rate: fneg/(vpos+fneg);Miss rate * tiempo promedio;FFPW;100*Miss rate * FPPW;100*Miss rate * FPPW * tiempo promedio;Tiempo promedio de detección;precision: vpos/(vpos+fpos);recall: vpos/(vpos+fneg);precision*recall;F1: 2*(precision*recall)/(precision+recall);100*F1/tiempo promedio;F0.5: (1+0.25)*precision*recall/((0.25*precision)+recall);pasoEscala;umbralAgrupamiento;hit_threshold;setSVMDetector;escala_inicial;convertir_a_gris;ecualizar_histograma;blurear;tamanio_blur;filtro_enfoque;filtro_repujado;filtro_enfoque_y_repujado;filtro_repujado_y_enfoque;usar_profundidad_altura;
DH_xx_01;set235nuevo_reales;900;719;695;24;430;0.382222;27.506611;0.026667;1.019259;73.350967;71.964967;0.966620;0.617778;0.597157;0.753796;1.047449;0.868533;1.050000;2;0.000000;getDefaultPeopleDetector;1.300000;false;false;false;3;false;false;false;false;false;
DH_xx_02;set235nuevo_reales;900;1107;790;317;339;0.300266;17.809025;0.352222;10.576027;627.273438;59.310878;0.713640;0.699734;0.499359;0.706619;1.191382;0.710815;1.050000;2;0.000000;getDefaultPeopleDetector;1.300000;true;false;false;3;false;false;false;false;false;
DH_xx_03;set235nuevo_reales;900;775;745;30;383;0.339539;20.538607;0.033333;1.131797;68.462029;60.489680;0.961290;0.660461;0.634895;0.782974;1.294393;0.881031;1.050000;2;0.000000;getDefaultPeopleDetector;1.300000;true;true;false;3;false;false;false;false;false;
DH_xx_04;set235nuevo_reales;900;739;734;5;392;0.348135;20.738388;0.005556;0.193408;11.521327;59.569961;0.993234;0.651865;0.647455;0.787131;1.321356;0.899069;1.050000;2;0.000000;getDefaultPeopleDetector;1.300000;true;true;false;3;false;false;false;false;true;
