Archivo estimados;Archivo reales;Imagenes analizadas;Total de detecciones;Verdaderos positivos;Falsos positivos;Falsos negativos;Miss rate: fneg/(vpos+fneg);Miss rate * tiempo promedio;FFPW;100*Miss rate * FPPW;100*Miss rate * FPPW * tiempo promedio;Tiempo promedio de detección;precision: vpos/(vpos+fpos);recall: vpos/(vpos+fneg);precision*recall;F1: 2*(precision*recall)/(precision+recall);100*F1/tiempo promedio;F0.5: (1+0.25)*precision*recall/((0.25*precision)+recall);pasoEscala;umbralAgrupamiento;hit_threshold;setSVMDetector;escala_inicial;convertir_a_gris;ecualizar_histograma;blurear;tamanio_blur;filtro_enfoque;filtro_repujado;filtro_enfoque_y_repujado;filtro_repujado_y_enfoque;usar_profundidad_altura;
DH_ht_01;set235nuevo_reales;900;775;745;30;383;0.339539;20.433414;0.033333;1.131797;68.111389;60.179870;0.961290;0.660461;0.634895;0.782974;1.301057;0.881031;1.050000;2;0.000000;getDefaultPeopleDetector;1.300000;true;true;false;3;false;false;false;false;false;
DH_ht_02;set235nuevo_reales;900;730;708;22;419;0.371783;22.271835;0.024444;0.908804;54.442261;59.905388;0.969863;0.628217;0.609284;0.762520;1.272874;0.874722;1.050000;2;0.100000;getDefaultPeopleDetector;1.300000;true;true;false;3;false;false;false;false;false;
DH_ht_03;set235nuevo_reales;900;676;659;17;468;0.415262;24.963150;0.018889;0.784383;47.152622;60.114255;0.974852;0.584738;0.570033;0.731004;1.216024;0.860089;1.050000;2;0.200000;getDefaultPeopleDetector;1.300000;true;true;false;3;false;false;false;false;false;
DH_ht_04;set235nuevo_reales;900;632;618;14;507;0.450667;27.032318;0.015556;0.701037;42.050274;59.982955;0.977848;0.549333;0.537165;0.703472;1.172786;0.845880;1.050000;2;0.300000;getDefaultPeopleDetector;1.300000;true;true;false;3;false;false;false;false;false;
DH_ht_05;set235nuevo_reales;900;588;575;13;550;0.488889;29.078861;0.014444;0.706173;42.002800;59.479489;0.977891;0.511111;0.499811;0.671337;1.128686;0.826862;1.050000;2;0.400000;getDefaultPeopleDetector;1.300000;true;true;false;3;false;false;false;false;false;
DH_ht_06;set235nuevo_reales;900;551;542;9;583;0.518222;31.062857;0.010000;0.518222;31.062857;59.941193;0.983666;0.481778;0.473908;0.646778;1.079021;0.814058;1.050000;2;0.500000;getDefaultPeopleDetector;1.300000;true;true;false;3;false;false;false;false;false;
DH_ht_07;set235nuevo_reales;900;354;352;2;773;0.687111;40.946827;0.002222;0.152691;9.099295;59.592725;0.994350;0.312889;0.311121;0.475997;0.798751;0.692641;1.050000;2;1.000000;getDefaultPeopleDetector;1.300000;true;true;false;3;false;false;false;false;false;
DH_ht_08;set235nuevo_reales;900;80;79;1;1046;0.929778;54.816936;0.001111;0.103309;6.090771;58.957030;0.987500;0.070222;0.069344;0.131120;0.222400;0.273356;1.050000;2;2.000000;getDefaultPeopleDetector;1.300000;true;true;false;3;false;false;false;false;false;
DH_ht_09;set235nuevo_reales;900;1;1;0;1124;0.999111;0.000000;0.000000;0.000000;0.000000;0.000000;1.000000;0.000889;0.000889;0.001776;inf;0.004429;1.050000;2;4.000000;getDefaultPeopleDetector;1.300000;true;true;false;3;false;false;false;false;false;
