Archivo estimados;Archivo reales;Imagenes analizadas;Total de detecciones;Verdaderos positivos;Falsos positivos;Falsos negativos;Miss rate: fneg/(vpos+fneg);Miss rate * tiempo promedio;FFPW;100*Miss rate * FPPW;100*Miss rate * FPPW * tiempo promedio;Tiempo promedio de detección;precision: vpos/(vpos+fpos);recall: vpos/(vpos+fneg);precision*recall;F1: 2*(precision*recall)/(precision+recall);100*F1/tiempo promedio;F0.5: (1+0.25)*precision*recall/((0.25*precision)+recall);pasoEscala;umbralAgrupamiento;hit_threshold;setSVMDetector;escala_inicial;convertir_a_gris;ecualizar_histograma;blurear;tamanio_blur;filtro_enfoque;filtro_repujado;filtro_enfoque_y_repujado;filtro_repujado_y_enfoque;usar_profundidad_altura;
DH_xx_01;set1_reales;24;34;9;25;6;0.400000;30.275240;1.041667;41.666664;3153.670654;75.688101;0.264706;0.600000;0.158824;0.367347;0.485343;0.298013;1.050000;2;0.000000;getDefaultPeopleDetector;1.300000;false;false;false;3;false;false;false;false;false;
DH_xx_02;set1_reales;24;35;8;27;7;0.466667;27.873856;1.125000;52.500000;3135.808594;59.729689;0.228571;0.533333;0.121905;0.320000;0.535747;0.258065;1.050000;2;0.000000;getDefaultPeopleDetector;1.300000;true;false;false;3;false;false;false;false;false;
DH_xx_03;set1_reales;24;32;6;26;9;0.600000;37.710823;1.083333;65.000008;4085.339355;62.851368;0.187500;0.400000;0.075000;0.255319;0.406227;0.209790;1.050000;2;0.000000;getDefaultPeopleDetector;1.300000;true;true;false;3;false;false;false;false;false;
DH_xx_04;set1_reales;24;7;5;2;10;0.666667;39.424469;0.083333;5.555556;328.537262;59.136700;0.714286;0.333333;0.238095;0.454545;0.768635;0.581395;1.050000;2;0.000000;getDefaultPeopleDetector;1.300000;true;true;false;3;false;false;false;false;true;
