Archivo estimados;Archivo reales;Imagenes analizadas;Total de detecciones;Verdaderos positivos;Falsos positivos;Falsos negativos;Miss rate: fneg/(vpos+fneg);Miss rate * tiempo promedio;FFPW;100*Miss rate * FPPW;100*Miss rate * FPPW * tiempo promedio;Tiempo promedio de detección;precision: vpos/(vpos+fpos);recall: vpos/(vpos+fneg);precision*recall;F1: 2*(precision*recall)/(precision+recall);100*F1/tiempo promedio;F0.5: (1+0.25)*precision*recall/((0.25*precision)+recall);pasoEscala;umbralAgrupamiento;hit_threshold;setSVMDetector;escala_inicial;convertir_a_gris;ecualizar_histograma;blurear;tamanio_blur;filtro_enfoque;filtro_repujado;filtro_enfoque_y_repujado;filtro_repujado_y_enfoque;
DH_ua_01;set1_reales;24;65;11;54;4;0.266667;15.537802;2.250000;60.000004;3496.005371;58.266752;0.169231;0.733333;0.124103;0.275000;0.471967;0.200000;1.050000;0;0.000000;getDefaultPeopleDetector;1.300000;true;true;false;3;false;false;false;false;
DH_ua_02;set1_reales;24;37;9;28;6;0.400000;23.027784;1.166667;46.666664;2686.574707;57.569462;0.243243;0.600000;0.145946;0.346154;0.601280;0.276074;1.050000;1;0.000000;getDefaultPeopleDetector;1.300000;true;true;false;3;false;false;false;false;
DH_ua_03;set1_reales;24;32;6;26;9;0.600000;35.106720;1.083333;65.000008;3803.228516;58.511200;0.187500;0.400000;0.075000;0.255319;0.436359;0.209790;1.050000;2;0.000000;getDefaultPeopleDetector;1.300000;true;true;false;3;false;false;false;false;
DH_ua_04;set1_reales;24;25;6;19;9;0.600000;36.055286;0.791667;47.500004;2854.376953;60.092140;0.240000;0.400000;0.096000;0.300000;0.499233;0.260870;1.050000;3;0.000000;getDefaultPeopleDetector;1.300000;true;true;false;3;false;false;false;false;
DH_ua_05;set1_reales;24;14;5;9;10;0.666667;39.291111;0.375000;25.000002;1473.416748;58.936665;0.357143;0.333333;0.119048;0.344828;0.585082;0.352113;1.050000;4;0.000000;getDefaultPeopleDetector;1.300000;true;true;false;3;false;false;false;false;
DH_ua_06;set1_reales;24;7;4;3;11;0.733333;42.353878;0.125000;9.166667;529.423462;57.755286;0.571429;0.266667;0.152381;0.363636;0.629616;0.465116;1.050000;5;0.000000;getDefaultPeopleDetector;1.300000;true;true;false;3;false;false;false;false;
DH_ua_07;set1_reales;24;5;3;2;12;0.800000;44.766319;0.083333;6.666667;373.052673;55.957900;0.600000;0.200000;0.120000;0.300000;0.536117;0.428571;1.050000;6;0.000000;getDefaultPeopleDetector;1.300000;true;true;false;3;false;false;false;false;
DH_ua_08;set1_reales;24;5;3;2;12;0.800000;47.067135;0.083333;6.666667;392.226135;58.833920;0.600000;0.200000;0.120000;0.300000;0.509910;0.428571;1.050000;7;0.000000;getDefaultPeopleDetector;1.300000;true;true;false;3;false;false;false;false;
DH_ua_09;set1_reales;24;4;3;1;12;0.800000;45.213779;0.041667;3.333333;188.390762;56.517225;0.750000;0.200000;0.150000;0.315789;0.558749;0.483871;1.050000;8;0.000000;getDefaultPeopleDetector;1.300000;true;true;false;3;false;false;false;false;
