Archivo estimados;Archivo reales;Imagenes analizadas;Total de detecciones;Verdaderos positivos;Falsos positivos;Falsos negativos;Miss rate: fneg/(vpos+fneg);Miss rate * tiempo promedio;FFPW;100*Miss rate * FPPW;100*Miss rate * FPPW * tiempo promedio;Tiempo promedio de detección;precision: vpos/(vpos+fpos);recall: vpos/(vpos+fneg);precision*recall;F1: 2*(precision*recall)/(precision+recall);100*F1/tiempo promedio;F0.5: (1+0.25)*precision*recall/((0.25*precision)+recall);pasoEscala;umbralAgrupamiento;hit_threshold;setSVMDetector;escala_inicial;convertir_a_gris;ecualizar_histograma;blurear;tamanio_blur;filtro_enfoque;filtro_repujado;filtro_enfoque_y_repujado;filtro_repujado_y_enfoque;
DH_bl_01;set1_reales;24;32;6;26;9;0.600000;34.322708;1.083333;65.000008;3718.293457;57.204510;0.187500;0.400000;0.075000;0.255319;0.446327;0.209790;1.050000;2;0.000000;getDefaultPeopleDetector;1.300000;true;true;false;3;false;false;false;false;
DH_bl_02;set1_reales;24;29;5;24;10;0.666667;38.326469;1.000000;66.666672;3832.647217;57.489703;0.172414;0.333333;0.057471;0.227273;0.395328;0.190840;1.050000;2;0.000000;getDefaultPeopleDetector;1.300000;true;true;true;3;false;false;false;false;
DH_bl_03;set1_reales;24;28;6;22;9;0.600000;34.454212;0.916667;55.000004;3158.302734;57.423682;0.214286;0.400000;0.085714;0.279070;0.485984;0.236220;1.050000;2;0.000000;getDefaultPeopleDetector;1.300000;true;true;true;5;false;false;false;false;
DH_bl_04;set1_reales;24;26;5;21;10;0.666667;38.584957;0.875000;58.333336;3376.183838;57.877435;0.192308;0.333333;0.064103;0.243902;0.421412;0.210084;1.050000;2;0.000000;getDefaultPeopleDetector;1.300000;true;true;true;7;false;false;false;false;
DH_bl_05;set1_reales;24;24;5;19;10;0.666667;38.256252;0.791667;52.777782;3028.620117;57.384375;0.208333;0.333333;0.069444;0.256410;0.446829;0.225225;1.050000;2;0.000000;getDefaultPeopleDetector;1.300000;true;true;true;9;false;false;false;false;
