Archivo estimados;Archivo reales;Imagenes analizadas;Total de detecciones;Verdaderos positivos;Falsos positivos;Falsos negativos;Miss rate: fneg/(vpos+fneg);Miss rate * tiempo promedio;FFPW;100*Miss rate * FPPW;100*Miss rate * FPPW * tiempo promedio;Tiempo promedio de detección;precision: vpos/(vpos+fpos);recall: vpos/(vpos+fneg);precision*recall;F1: 2*(precision*recall)/(precision+recall);100*F1/tiempo promedio;F0.5: (1+0.25)*precision*recall/((0.25*precision)+recall);pasoEscala;umbralAgrupamiento;hit_threshold;setSVMDetector;escala_inicial;convertir_a_gris;ecualizar_histograma;blurear;tamanio_blur;filtro_enfoque;filtro_repujado;filtro_enfoque_y_repujado;filtro_repujado_y_enfoque;
DH_ht_01;set1_reales;24;32;6;26;9;0.600000;34.355194;1.083333;65.000008;3721.812988;57.258653;0.187500;0.400000;0.075000;0.255319;0.445905;0.209790;1.050000;2;0.000000;getDefaultPeopleDetector;1.300000;true;true;false;3;false;false;false;false;
DH_ht_02;set1_reales;24;32;6;26;9;0.600000;34.406872;1.083333;65.000008;3727.411133;57.344781;0.187500;0.400000;0.075000;0.255319;0.445235;0.209790;1.050000;2;0.000000;getDefaultPeopleDetector;1.300000;true;true;false;3;false;false;false;false;
DH_ht_03;set1_reales;24;32;6;26;9;0.600000;34.385231;1.083333;65.000008;3725.066895;57.308715;0.187500;0.400000;0.075000;0.255319;0.445515;0.209790;1.050000;2;0.000000;getDefaultPeopleDetector;1.300000;true;true;false;3;false;false;false;false;
DH_ht_04;set1_reales;24;32;6;26;9;0.600000;34.117855;1.083333;65.000008;3696.101318;56.863091;0.187500;0.400000;0.075000;0.255319;0.449007;0.209790;1.050000;2;0.000000;getDefaultPeopleDetector;1.300000;true;true;false;3;false;false;false;false;
DH_ht_05;set1_reales;24;32;6;26;9;0.600000;34.109970;1.083333;65.000008;3695.247070;56.849950;0.187500;0.400000;0.075000;0.255319;0.449111;0.209790;1.050000;2;0.000000;getDefaultPeopleDetector;1.300000;true;true;false;3;false;false;false;false;
DH_ht_06;set1_reales;24;32;6;26;9;0.600000;34.734531;1.083333;65.000008;3762.907959;57.890884;0.187500;0.400000;0.075000;0.255319;0.441035;0.209790;1.050000;2;0.000000;getDefaultPeopleDetector;1.300000;true;true;false;3;false;false;false;false;
DH_ht_07;set1_reales;24;7;4;3;11;0.733333;41.620430;0.125000;9.166667;520.255371;56.755129;0.571429;0.266667;0.152381;0.363636;0.640711;0.465116;1.050000;2;1.000000;getDefaultPeopleDetector;1.300000;true;true;false;3;false;false;false;false;
DH_ht_08;set1_reales;24;1;1;0;14;0.933333;0.000000;0.000000;0.000000;0.000000;0.000000;1.000000;0.066667;0.066667;0.125000;inf;0.263158;1.050000;2;2.000000;getDefaultPeopleDetector;1.300000;true;true;false;3;false;false;false;false;
DH_ht_09;set1_reales;24;1;1;0;14;0.933333;0.000000;0.000000;0.000000;0.000000;0.000000;1.000000;0.066667;0.066667;0.125000;inf;0.263158;1.050000;2;4.000000;getDefaultPeopleDetector;1.300000;true;true;false;3;false;false;false;false;
