Archivo estimados;Archivo reales;Imagenes analizadas;Total de detecciones;Verdaderos positivos;Falsos positivos;Falsos negativos;Miss rate: fneg/(vpos+fneg);Miss rate * tiempo promedio;FFPW;100*Miss rate * FPPW;100*Miss rate * FPPW * tiempo promedio;Tiempo promedio de detección;precision: vpos/(vpos+fpos);recall: vpos/(vpos+fneg);precision*recall;F1: 2*(precision*recall)/(precision+recall);100*F1/tiempo promedio;F0.5: (1+0.25)*precision*recall/((0.25*precision)+recall);pasoEscala;umbralAgrupamiento;hit_threshold;setSVMDetector;escala_inicial;convertir_a_gris;ecualizar_histograma;blurear;tamanio_blur;filtro_enfoque;filtro_repujado;filtro_enfoque_y_repujado;filtro_repujado_y_enfoque;
DH_sd_01;set1_reales;24;32;6;26;9;0.600000;34.296268;1.083333;65.000008;3715.429199;57.160444;0.187500;0.400000;0.075000;0.255319;0.446671;0.209790;1.050000;2;0.000000;getDefaultPeopleDetector;1.300000;true;true;false;3;false;false;false;false;
DH_sd_02;set1_reales;24;186;15;171;2;0.117647;6.051139;7.125000;83.823524;4311.436035;51.434678;0.080645;0.882353;0.071157;0.147783;0.287322;0.098555;1.050000;2;0.000000;getDaimlerPeopleDetector;1.300000;true;true;false;3;false;false;false;false;
