Archivo estimados;Archivo reales;Imagenes analizadas;Total de detecciones;Verdaderos positivos;Falsos positivos;Falsos negativos;Miss rate: fneg/(vpos+fneg);Miss rate * tiempo promedio;FFPW;100*Miss rate * FPPW;100*Miss rate * FPPW * tiempo promedio;Tiempo promedio de detección;precision: vpos/(vpos+fpos);recall: vpos/(vpos+fneg);precision*recall;F1: 2*(precision*recall)/(precision+recall);100*F1/tiempo promedio;F0.5: (1+0.25)*precision*recall/((0.25*precision)+recall);pasoEscala;umbralAgrupamiento;hit_threshold;setSVMDetector;escala_inicial;convertir_a_gris;ecualizar_histograma;blurear;tamanio_blur;filtro_enfoque;filtro_repujado;filtro_enfoque_y_repujado;filtro_repujado_y_enfoque;
DH_ff_01;set1_reales;24;32;6;26;9;0.600000;34.264877;1.083333;65.000008;3712.028809;57.108128;0.187500;0.400000;0.075000;0.255319;0.447080;0.209790;1.050000;2;0.000000;getDefaultPeopleDetector;1.300000;true;true;false;3;false;false;false;false;
DH_ff_02;set1_reales;24;32;6;26;9;0.600000;34.130280;1.083333;65.000008;3697.447510;56.883800;0.187500;0.400000;0.075000;0.255319;0.448843;0.209790;1.050000;2;0.000000;getDefaultPeopleDetector;1.300000;true;true;false;3;true;false;false;false;
DH_ff_03;set1_reales;24;32;6;26;9;0.600000;33.915668;1.083333;65.000008;3674.197510;56.526110;0.187500;0.400000;0.075000;0.255319;0.451684;0.209790;1.050000;2;0.000000;getDefaultPeopleDetector;1.300000;true;true;false;3;false;true;false;false;
DH_ff_04;set1_reales;24;32;6;26;9;0.600000;34.323837;1.083333;65.000008;3718.416016;57.206394;0.187500;0.400000;0.075000;0.255319;0.446312;0.209790;1.050000;2;0.000000;getDefaultPeopleDetector;1.300000;true;true;false;3;false;false;true;false;
DH_ff_05;set1_reales;24;32;6;26;9;0.600000;34.183647;1.083333;65.000008;3703.228516;56.972741;0.187500;0.400000;0.075000;0.255319;0.448143;0.209790;1.050000;2;0.000000;getDefaultPeopleDetector;1.300000;true;true;false;3;false;false;false;true;
