Archivo estimados;Archivo reales;Imagenes analizadas;Total de detecciones;Verdaderos positivos;Falsos positivos;Falsos negativos;Miss rate: fneg/(vpos+fneg);Miss rate * tiempo promedio;FFPW;100*Miss rate * FPPW;100*Miss rate * FPPW * tiempo promedio;Tiempo promedio de detección;precision: vpos/(vpos+fpos);recall: vpos/(vpos+fneg);precision*recall;F1: 2*(precision*recall)/(precision+recall);100*F1/tiempo promedio;F0.5: (1+0.25)*precision*recall/((0.25*precision)+recall);pasoEscala;umbralAgrupamiento;hit_threshold;setSVMDetector;escala_inicial;convertir_a_gris;ecualizar_histograma;blurear;tamanio_blur;filtro_enfoque;filtro_repujado;filtro_enfoque_y_repujado;filtro_repujado_y_enfoque;
DH_ht_01;set1_reales;24;32;6;26;9;0.600000;34.810635;1.083333;65.000008;3771.152344;58.017721;0.187500;0.400000;0.075000;0.255319;0.440071;0.209790;1.050000;2;0.000000;getDefaultPeopleDetector;1.300000;true;true;false;3;false;false;false;false;
DH_ht_02;set1_reales;24;31;6;25;9;0.600000;35.072479;1.041667;62.500000;3653.383301;58.454132;0.193548;0.400000;0.077419;0.260870;0.446281;0.215827;1.050000;2;0.100000;getDefaultPeopleDetector;1.300000;true;true;false;3;false;false;false;false;
DH_ht_03;set1_reales;24;28;5;23;10;0.666667;40.293411;0.958333;63.888893;3861.451904;60.440114;0.178571;0.333333;0.059524;0.232558;0.384775;0.196850;1.050000;2;0.200000;getDefaultPeopleDetector;1.300000;true;true;false;3;false;false;false;false;
DH_ht_04;set1_reales;24;26;5;21;10;0.666667;39.190536;0.875000;58.333336;3429.172119;58.785804;0.192308;0.333333;0.064103;0.243902;0.414900;0.210084;1.050000;2;0.300000;getDefaultPeopleDetector;1.300000;true;true;false;3;false;false;false;false;
DH_ht_05;set1_reales;24;26;5;21;10;0.666667;38.813145;0.875000;58.333336;3396.150146;58.219715;0.192308;0.333333;0.064103;0.243902;0.418934;0.210084;1.050000;2;0.400000;getDefaultPeopleDetector;1.300000;true;true;false;3;false;false;false;false;
DH_ht_06;set1_reales;24;23;5;18;10;0.666667;39.056618;0.750000;50.000004;2929.246582;58.584926;0.217391;0.333333;0.072464;0.263158;0.449190;0.233645;1.050000;2;0.500000;getDefaultPeopleDetector;1.300000;true;true;false;3;false;false;false;false;
DH_ht_07;set1_reales;24;7;4;3;11;0.733333;43.128319;0.125000;9.166667;539.104004;58.811344;0.571429;0.266667;0.152381;0.363636;0.618310;0.465116;1.050000;2;1.000000;getDefaultPeopleDetector;1.300000;true;true;false;3;false;false;false;false;
DH_ht_08;set1_reales;24;1;1;0;14;0.933333;0.000000;0.000000;0.000000;0.000000;0.000000;1.000000;0.066667;0.066667;0.125000;inf;0.263158;1.050000;2;2.000000;getDefaultPeopleDetector;1.300000;true;true;false;3;false;false;false;false;
DH_ht_09;set1_reales;24;1;1;0;14;0.933333;0.000000;0.000000;0.000000;0.000000;0.000000;1.000000;0.066667;0.066667;0.125000;inf;0.263158;1.050000;2;4.000000;getDefaultPeopleDetector;1.300000;true;true;false;3;false;false;false;false;
