Archivo estimados;Archivo reales;Imagenes analizadas;Total de detecciones;Verdaderos positivos;Falsos positivos;Falsos negativos;Miss rate: fneg/(vpos+fneg);Miss rate * tiempo promedio;FFPW;100*Miss rate * FPPW;100*Miss rate * FPPW * tiempo promedio;Tiempo promedio de detección;precision: vpos/(vpos+fpos);recall: vpos/(vpos+fneg);precision*recall;F1: 2*(precision*recall)/(precision+recall);100*F1/tiempo promedio;F0.5: (1+0.25)*precision*recall/((0.25*precision)+recall);pasoEscala;umbralAgrupamiento;hit_threshold;setSVMDetector;escala_inicial;convertir_a_gris;ecualizar_histograma;blurear;tamanio_blur;filtro_enfoque;filtro_repujado;filtro_enfoque_y_repujado;filtro_repujado_y_enfoque;
DH_xx_01;set1_reales;24;34;9;25;6;0.400000;27.832552;1.041667;41.666664;2899.223877;69.581380;0.264706;0.600000;0.158824;0.367347;0.527939;0.298013;1.050000;2;0.000000;getDefaultPeopleDetector;1.300000;false;false;false;3;false;false;false;false;
DH_xx_02;set1_reales;24;35;8;27;7;0.466667;27.153490;1.125000;52.500000;3054.767578;58.186048;0.228571;0.533333;0.121905;0.320000;0.549960;0.258065;1.050000;2;0.000000;getDefaultPeopleDetector;1.300000;true;false;false;3;false;false;false;false;
DH_xx_03;set1_reales;24;32;6;26;9;0.600000;36.321568;1.083333;65.000008;3934.836670;60.535941;0.187500;0.400000;0.075000;0.255319;0.421765;0.209790;1.050000;2;0.000000;getDefaultPeopleDetector;1.300000;true;true;false;3;false;false;false;false;
