Archivo estimados;Archivo reales;Imagenes analizadas;Total de detecciones;Verdaderos positivos;Falsos positivos;Falsos negativos;Miss rate: fneg/(vpos+fneg);Miss rate * tiempo promedio;FFPW;100*Miss rate * FPPW;100*Miss rate * FPPW * tiempo promedio;Tiempo promedio de detección;precision: vpos/(vpos+fpos);recall: vpos/(vpos+fneg);precision*recall;F1: 2*(precision*recall)/(precision+recall);100*F1/tiempo promedio;F0.5: (1+0.25)*precision*recall/((0.25*precision)+recall);pasoEscala;umbralAgrupamiento;hit_threshold;setSVMDetector;escala_inicial;convertir_a_gris;ecualizar_histograma;blurear;tamanio_blur;filtro_enfoque;filtro_repujado;filtro_enfoque_y_repujado;filtro_repujado_y_enfoque;
DH_ei_01;set1_reales;24;33;6;27;9;0.600000;67.619308;1.125000;67.500008;7607.173340;112.698848;0.181818;0.400000;0.072727;0.250000;0.221830;0.204082;1.050000;2;0.000000;getDefaultPeopleDetector;1.000000;true;true;false;3;false;false;false;false;
DH_ei_02;set1_reales;24;35;6;29;9;0.600000;43.153400;1.208333;72.500008;5214.369629;71.922334;0.171429;0.400000;0.068571;0.240000;0.333693;0.193548;1.050000;2;0.000000;getDefaultPeopleDetector;1.200000;true;true;false;3;false;false;false;false;
DH_ei_03;set1_reales;24;32;6;26;9;0.600000;34.663193;1.083333;65.000008;3755.179443;57.771984;0.187500;0.400000;0.075000;0.255319;0.441943;0.209790;1.050000;2;0.000000;getDefaultPeopleDetector;1.300000;true;true;false;3;false;false;false;false;
DH_ei_04;set1_reales;24;26;5;21;10;0.666667;27.085121;0.875000;58.333336;2369.948242;40.627681;0.192308;0.333333;0.064103;0.243902;0.600336;0.210084;1.050000;2;0.000000;getDefaultPeopleDetector;1.500000;true;true;false;3;false;false;false;false;
DH_ei_05;set1_reales;24;5;3;2;12;0.800000;14.966944;0.083333;6.666667;124.724541;18.708680;0.600000;0.200000;0.120000;0.300000;1.603534;0.428571;1.050000;2;0.000000;getDefaultPeopleDetector;2.000000;true;true;false;3;false;false;false;false;
DH_ei_06;set1_reales;24;1;1;0;14;0.933333;0.000000;0.000000;0.000000;0.000000;0.000000;1.000000;0.066667;0.066667;0.125000;inf;0.263158;1.050000;2;0.000000;getDefaultPeopleDetector;3.000000;true;true;false;3;false;false;false;false;
