Archivo estimados;Archivo reales;Imagenes analizadas;Total de detecciones;Verdaderos positivos;Falsos positivos;Falsos negativos;Miss rate: fneg/(vpos+fneg);Miss rate * tiempo promedio;FFPW;100*Miss rate * FPPW;100*Miss rate * FPPW * tiempo promedio;Tiempo promedio de detección;precision: vpos/(vpos+fpos);recall: vpos/(vpos+fneg);precision*recall;F1: 2*(precision*recall)/(precision+recall);100*F1/tiempo promedio;F0.5: (1+0.25)*precision*recall/((0.25*precision)+recall);pasoEscala;umbralAgrupamiento;hit_threshold;setSVMDetector;escala_inicial;convertir_a_gris;ecualizar_histograma;blurear;tamanio_blur;filtro_enfoque;filtro_repujado;filtro_enfoque_y_repujado;filtro_repujado_y_enfoque;usar_profundidad_altura;
DH_zz_01;set67_reales;600;407;390;17;180;0.315789;13.998088;0.028333;0.894737;39.661251;44.327279;0.958231;0.684211;0.655632;0.798362;1.801063;0.887170;1.050000;2;0.000000;getDefaultPeopleDetector;1.500000;true;true;false;3;false;false;false;false;false;
DH_zz_02;set67_reales;600;309;305;4;265;0.464912;19.601719;0.006667;0.309942;13.067812;42.162186;0.987055;0.535088;0.528161;0.693970;1.645955;0.844407;1.050000;2;0.000000;getDefaultPeopleDetector;1.500000;true;true;false;3;false;false;false;false;true;
