Archivo estimados;Archivo reales;Imagenes analizadas;Total de detecciones;Verdaderos positivos;Falsos positivos;Falsos negativos;Miss rate: fneg/(vpos+fneg);Miss rate * tiempo promedio;FFPW;100*Miss rate * FPPW;100*Miss rate * FPPW * tiempo promedio;Tiempo promedio de detección;precision: vpos/(vpos+fpos);recall: vpos/(vpos+fneg);precision*recall;F1: 2*(precision*recall)/(precision+recall);100*F1/tiempo promedio;F0.5: (1+0.25)*precision*recall/((0.25*precision)+recall);pasoEscala;umbralAgrupamiento;hit_threshold;setSVMDetector;escala_inicial;convertir_a_gris;ecualizar_histograma;blurear;tamanio_blur;filtro_enfoque;filtro_repujado;filtro_enfoque_y_repujado;filtro_repujado_y_enfoque;usar_profundidad_altura;
DH_ei_01;set235nuevo_reales;900;960;725;235;402;0.356699;41.598267;0.261111;9.313812;1086.176880;116.620012;0.755208;0.643301;0.485826;0.694777;0.595762;0.729817;1.050000;2;0.000000;getDefaultPeopleDetector;1.000000;true;true;false;3;false;false;false;false;false;
DH_ei_02;set235nuevo_reales;900;816;721;95;404;0.359111;26.277603;0.105556;3.790617;277.374695;73.174018;0.883578;0.640889;0.566276;0.742916;1.015273;0.821372;1.050000;2;0.000000;getDefaultPeopleDetector;1.200000;true;true;false;3;false;false;false;false;false;
DH_ei_03;set235nuevo_reales;900;775;745;30;383;0.339539;20.299080;0.033333;1.131797;67.663605;59.784234;0.961290;0.660461;0.634895;0.782974;1.309667;0.881031;1.050000;2;0.000000;getDefaultPeopleDetector;1.300000;true;true;false;3;false;false;false;false;false;
DH_ei_04;set235nuevo_reales;900;728;712;16;414;0.367673;15.202315;0.017778;0.653641;27.026337;41.347358;0.978022;0.632327;0.618430;0.768069;1.857601;0.881625;1.050000;2;0.000000;getDefaultPeopleDetector;1.500000;true;true;false;3;false;false;false;false;false;
DH_ei_05;set235nuevo_reales;900;515;508;7;618;0.548845;10.257044;0.007778;0.426880;7.977701;18.688401;0.986408;0.451155;0.445022;0.619135;3.312936;0.797238;1.050000;2;0.000000;getDefaultPeopleDetector;2.000000;true;true;false;3;false;false;false;false;false;
DH_ei_06;set235nuevo_reales;900;59;57;2;1068;0.949333;4.093332;0.002222;0.210963;0.909629;4.311796;0.966102;0.050667;0.048949;0.096284;2.233032;0.209405;1.050000;2;0.000000;getDefaultPeopleDetector;3.000000;true;true;false;3;false;false;false;false;false;
