Archivo estimados;Archivo reales;Imagenes analizadas;Total de detecciones;Verdaderos positivos;Falsos positivos;Falsos negativos;Miss rate: fneg/(vpos+fneg);Miss rate * tiempo promedio;FFPW;100*Miss rate * FPPW;100*Miss rate * FPPW * tiempo promedio;Tiempo promedio de detección;precision: vpos/(vpos+fpos);recall: vpos/(vpos+fneg);precision*recall;F1: 2*(precision*recall)/(precision+recall);F1/tiempo promedio;pasoEscala;umbralAgrupamiento;hit_threshold;setSVMDetector;escala_inicial;convertir_a_gris;ecualizar_histograma;blurear;tamanio_blur;filtro_enfoque;filtro_repujado;filtro_enfoque_y_repujado;filtro_repujado_y_enfoque;
DH_xx_01;set1_reales;24;34;7;27;11;0.611111;46.306259;1.125000;68.750000;5209.454102;75.773877;0.205882;0.388889;0.080065;0.269231;0.003553;1.050000;2;0.000000;getDefaultPeopleDetector;1.300000;false;false;false;3;false;false;false;false;
DH_xx_02;set1_reales;24;35;0;35;15;1.000000;73.394073;1.458333;145.833344;10703.303711;73.394075;0.000000;0.000000;0.000000;-nan;-nan;1.050000;2;0.000000;getDefaultPeopleDetector;1.300000;true;false;false;3;false;false;false;false;
DH_xx_03;set1_reales;24;32;3;29;13;0.812500;48.497955;1.208333;98.177086;5860.169922;59.689791;0.093750;0.187500;0.017578;0.125000;0.002094;1.050000;2;0.000000;getDefaultPeopleDetector;1.300000;true;true;false;3;false;false;false;false;
