Archivo estimados;Archivo reales;Imagenes analizadas;Total de detecciones;Verdaderos positivos;Falsos positivos;Falsos negativos;Miss rate: fneg/(vpos+fneg);Miss rate * tiempo promedio;FFPW;100*Miss rate * FPPW;100*Miss rate * FPPW * tiempo promedio;Tiempo promedio de detección;precision: vpos/(vpos+fpos);recall: vpos/(vpos+fneg);precision*recall;F1: 2*(precision*recall)/(precision+recall);F1/tiempo promedio;pasoEscala;umbralAgrupamiento;hit_threshold;setSVMDetector;escala_inicial;convertir_a_gris;ecualizar_histograma;blurear;tamanio_blur;filtro_enfoque;filtro_repujado;filtro_enfoque_y_repujado;filtro_repujado_y_enfoque;
DH_ua_01;set1_reales;24;72;4;68;13;0.764706;55.618141;2.833333;216.666656;15758.472656;72.731415;0.055556;0.235294;0.013072;0.089888;0.001236;1.050000;0;0.000000;getDefaultPeopleDetector;1.300000;true;true;false;3;false;false;false;false;
DH_ua_02;set1_reales;24;38;3;35;13;0.812500;53.983410;1.458333;118.489586;7872.580566;66.441118;0.078947;0.187500;0.014803;0.111111;0.001672;1.050000;1;0.000000;getDefaultPeopleDetector;1.300000;true;true;false;3;false;false;false;false;
DH_ua_03;set1_reales;24;32;3;29;13;0.812500;54.194775;1.208333;98.177086;6548.535156;66.701259;0.093750;0.187500;0.017578;0.125000;0.001874;1.050000;2;0.000000;getDefaultPeopleDetector;1.300000;true;true;false;3;false;false;false;false;
DH_ua_04;set1_reales;24;25;3;22;13;0.812500;50.602306;0.916667;74.479172;4638.545410;62.279764;0.120000;0.187500;0.022500;0.146341;0.002350;1.050000;3;0.000000;getDefaultPeopleDetector;1.300000;true;true;false;3;false;false;false;false;
DH_ua_05;set1_reales;24;14;2;12;13;0.866667;55.001553;0.500000;43.333332;2750.077393;63.463328;0.142857;0.133333;0.019048;0.137931;0.002173;1.050000;4;0.000000;getDefaultPeopleDetector;1.300000;true;true;false;3;false;false;false;false;
DH_ua_06;set1_reales;24;7;2;5;13;0.866667;53.602169;0.208333;18.055555;1116.711792;61.848657;0.285714;0.133333;0.038095;0.181818;0.002940;1.050000;5;0.000000;getDefaultPeopleDetector;1.300000;true;true;false;3;false;false;false;false;
DH_ua_07;set1_reales;24;5;2;3;13;0.866667;52.785374;0.125000;10.833333;659.817139;60.906200;0.400000;0.133333;0.053333;0.200000;0.003284;1.050000;6;0.000000;getDefaultPeopleDetector;1.300000;true;true;false;3;false;false;false;false;
DH_ua_08;set1_reales;24;5;2;3;13;0.866667;54.082897;0.125000;10.833333;676.036194;62.403340;0.400000;0.133333;0.053333;0.200000;0.003205;1.050000;7;0.000000;getDefaultPeopleDetector;1.300000;true;true;false;3;false;false;false;false;
DH_ua_09;set1_reales;24;4;2;2;13;0.866667;51.139141;0.083333;7.222222;426.159515;59.006701;0.500000;0.133333;0.066667;0.210526;0.003568;1.050000;8;0.000000;getDefaultPeopleDetector;1.300000;true;true;false;3;false;false;false;false;
