Archivo estimados;Archivo reales;Imagenes analizadas;Total de detecciones;Verdaderos positivos;Falsos positivos;Falsos negativos;Miss rate: fneg/(vpos+fneg);Miss rate * tiempo promedio;FFPW;100*Miss rate * FPPW;100*Miss rate * FPPW * tiempo promedio;Tiempo promedio de detección;precision: vpos/(vpos+fpos);recall: vpos/(vpos+fneg);precision*recall;F1: 2*(precision*recall)/(precision+recall);F1/tiempo promedio;pasoEscala;umbralAgrupamiento;hit_threshold;setSVMDetector;escala_inicial;convertir_a_gris;ecualizar_histograma;blurear;tamanio_blur;filtro_enfoque;filtro_repujado;filtro_enfoque_y_repujado;filtro_repujado_y_enfoque;
DH_ht_01;set1_reales;24;32;3;29;13;0.812500;52.822807;1.208333;98.177086;6382.756348;65.012688;0.093750;0.187500;0.017578;0.125000;0.001923;1.050000;2;0.000000;getDefaultPeopleDetector;1.300000;true;true;false;3;false;false;false;false;
DH_ht_02;set1_reales;24;32;3;29;13;0.812500;49.518284;1.208333;98.177086;5983.459473;60.945581;0.093750;0.187500;0.017578;0.125000;0.002051;1.050000;2;0.000000;getDefaultPeopleDetector;1.300000;true;true;false;3;false;false;false;false;
DH_ht_03;set1_reales;24;32;3;29;13;0.812500;50.553093;1.208333;98.177086;6108.499023;62.219190;0.093750;0.187500;0.017578;0.125000;0.002009;1.050000;2;0.000000;getDefaultPeopleDetector;1.300000;true;true;false;3;false;false;false;false;
DH_ht_04;set1_reales;24;32;3;29;13;0.812500;50.121986;1.208333;98.177086;6056.407227;61.688600;0.093750;0.187500;0.017578;0.125000;0.002026;1.050000;2;0.000000;getDefaultPeopleDetector;1.300000;true;true;false;3;false;false;false;false;
DH_ht_05;set1_reales;24;32;3;29;13;0.812500;54.999611;1.208333;98.177086;6645.786621;67.691831;0.093750;0.187500;0.017578;0.125000;0.001847;1.050000;2;0.000000;getDefaultPeopleDetector;1.300000;true;true;false;3;false;false;false;false;
DH_ht_06;set1_reales;24;32;3;29;13;0.812500;55.523628;1.208333;98.177086;6709.105469;68.336775;0.093750;0.187500;0.017578;0.125000;0.001829;1.050000;2;0.000000;getDefaultPeopleDetector;1.300000;true;true;false;3;false;false;false;false;
DH_ht_07;set1_reales;24;7;1;6;14;0.933333;58.755322;0.250000;23.333334;1468.883057;62.952129;0.142857;0.066667;0.009524;0.090909;0.001444;1.050000;2;1.000000;getDefaultPeopleDetector;1.300000;true;true;false;3;false;false;false;false;
DH_ht_08;set1_reales;24;1;1;0;14;0.933333;0.000000;0.000000;0.000000;0.000000;0.000000;1.000000;0.066667;0.066667;0.125000;inf;1.050000;2;2.000000;getDefaultPeopleDetector;1.300000;true;true;false;3;false;false;false;false;
DH_ht_09;set1_reales;24;1;1;0;14;0.933333;0.000000;0.000000;0.000000;0.000000;0.000000;1.000000;0.066667;0.066667;0.125000;inf;1.050000;2;4.000000;getDefaultPeopleDetector;1.300000;true;true;false;3;false;false;false;false;
