Archivo estimados;Archivo reales;Imagenes analizadas;Total de detecciones;Verdaderos positivos;Falsos positivos;Falsos negativos;Miss rate: fneg/(vpos+fneg);Miss rate * tiempo promedio;FFPW;100*Miss rate * FPPW;100*Miss rate * FPPW * tiempo promedio;Tiempo promedio de detección;precision: vpos/(vpos+fpos);recall: vpos/(vpos+fneg);precision*recall;F1: 2*(precision*recall)/(precision+recall);F1/tiempo promedio;pasoEscala;umbralAgrupamiento;hit_threshold;setSVMDetector;escala_inicial;convertir_a_gris;ecualizar_histograma;blurear;tamanio_blur;filtro_enfoque;filtro_repujado;filtro_enfoque_y_repujado;filtro_repujado_y_enfoque;
DH_ff_01;set1_reales;24;32;3;29;13;0.812500;46.383915;1.208333;98.177086;5604.723145;57.087894;0.093750;0.187500;0.017578;0.125000;0.002190;1.050000;2;0.000000;getDefaultPeopleDetector;1.300000;true;true;false;3;false;false;false;false;
DH_ff_02;set1_reales;24;32;3;29;13;0.812500;46.513611;1.208333;98.177086;5620.394531;57.247519;0.093750;0.187500;0.017578;0.125000;0.002184;1.050000;2;0.000000;getDefaultPeopleDetector;1.300000;true;true;false;3;true;false;false;false;
DH_ff_03;set1_reales;24;32;3;29;13;0.812500;46.675892;1.208333;98.177086;5640.003906;57.447253;0.093750;0.187500;0.017578;0.125000;0.002176;1.050000;2;0.000000;getDefaultPeopleDetector;1.300000;true;true;false;3;false;true;false;false;
DH_ff_04;set1_reales;24;32;3;29;13;0.812500;46.124168;1.208333;98.177086;5573.337402;56.768209;0.093750;0.187500;0.017578;0.125000;0.002202;1.050000;2;0.000000;getDefaultPeopleDetector;1.300000;true;true;false;3;false;false;true;false;
DH_ff_05;set1_reales;24;32;3;29;13;0.812500;48.323460;1.208333;98.177086;5839.084961;59.475028;0.093750;0.187500;0.017578;0.125000;0.002102;1.050000;2;0.000000;getDefaultPeopleDetector;1.300000;true;true;false;3;false;false;false;true;
