Archivo estimados;Archivo reales;Imagenes analizadas;Total de detecciones;Verdaderos positivos;Falsos positivos;Falsos negativos;Miss rate: fneg/(vpos+fneg);Miss rate * tiempo promedio;FFPW;100*Miss rate * FPPW;100*Miss rate * FPPW * tiempo promedio;Tiempo promedio de detección;precision: vpos/(vpos+fpos);recall: vpos/(vpos+fneg);precision*recall;F1: 2*(precision*recall)/(precision+recall);F1/tiempo promedio;pasoEscala;umbralAgrupamiento;hit_threshold;setSVMDetector;escala_inicial;convertir_a_gris;ecualizar_histograma;blurear;tamanio_blur;filtro_enfoque;filtro_repujado;filtro_enfoque_y_repujado;filtro_repujado_y_enfoque;
DH_bl_01;set1_reales;24;32;3;29;13;0.812500;48.831512;1.208333;98.177086;5900.474609;60.100325;0.093750;0.187500;0.017578;0.125000;0.002080;1.050000;2;0.000000;getDefaultPeopleDetector;1.300000;true;true;false;3;false;false;false;false;
DH_bl_02;set1_reales;24;29;5;24;12;0.705882;48.615330;1.000000;70.588234;4861.532715;68.871714;0.172414;0.294118;0.050710;0.217391;0.003156;1.050000;2;0.000000;getDefaultPeopleDetector;1.300000;true;true;true;3;false;false;false;false;
DH_bl_03;set1_reales;24;28;3;25;13;0.812500;51.689137;1.041667;84.635414;5384.284668;63.617397;0.107143;0.187500;0.020089;0.136364;0.002143;1.050000;2;0.000000;getDefaultPeopleDetector;1.300000;true;true;true;5;false;false;false;false;
DH_bl_04;set1_reales;24;26;3;23;13;0.812500;49.909603;0.958333;77.864578;4783.003418;61.427203;0.115385;0.187500;0.021635;0.142857;0.002326;1.050000;2;0.000000;getDefaultPeopleDetector;1.300000;true;true;true;7;false;false;false;false;
DH_bl_05;set1_reales;24;24;2;22;14;0.875000;53.646858;0.916667;80.208336;4917.628906;61.310696;0.083333;0.125000;0.010417;0.100000;0.001631;1.050000;2;0.000000;getDefaultPeopleDetector;1.300000;true;true;true;9;false;false;false;false;
